digraph Tree {
node [shape=box, style="filled, rounded", color="black", fontname="helvetica"] ;
edge [fontname="helvetica"] ;
0 [label="radius_worst <= 16.795\ngini = 0.465\nsamples = 512\nvalue = [324, 188]\nclass = knn-virginica", fillcolor="#f4caac"] ;
1 [label="radius_worst <= 15.485\ngini = 0.15\nsamples = 343\nvalue = [315, 28]\nclass = knn-virginica", fillcolor="#e78c4b"] ;
0 -> 1 [labeldistance=2.5, labelangle=45, headlabel="True"] ;
2 [label="radius_se <= 1.019\ngini = 0.061\nsamples = 287\nvalue = [278, 9]\nclass = knn-virginica", fillcolor="#e6853f"] ;
1 -> 2 ;
3 [label="radius_worst <= 14.905\ngini = 0.054\nsamples = 286\nvalue = [278, 8]\nclass = knn-virginica", fillcolor="#e6853f"] ;
2 -> 3 ;
4 [label="radius_worst <= 12.835\ngini = 0.031\nsamples = 254\nvalue = [250, 4]\nclass = knn-virginica", fillcolor="#e5833c"] ;
3 -> 4 ;
5 [label="gini = 0.0\nsamples = 125\nvalue = [125, 0]\nclass = knn-virginica", fillcolor="#e58139"] ;
4 -> 5 ;
6 [label="radius_mean <= 11.175\ngini = 0.06\nsamples = 129\nvalue = [125, 4]\nclass = knn-virginica", fillcolor="#e6853f"] ;
4 -> 6 ;
7 [label="radius_se <= 0.378\ngini = 0.444\nsamples = 3\nvalue = [1, 2]\nclass = knn-versicolor", fillcolor="#9ccef2"] ;
6 -> 7 ;
8 [label="gini = 0.0\nsamples = 2\nvalue = [0, 2]\nclass = knn-versicolor", fillcolor="#399de5"] ;
7 -> 8 ;
9 [label="gini = 0.0\nsamples = 1\nvalue = [1, 0]\nclass = knn-virginica", fillcolor="#e58139"] ;
7 -> 9 ;
10 [label="radius_worst <= 14.485\ngini = 0.031\nsamples = 126\nvalue = [124, 2]\nclass = knn-virginica", fillcolor="#e5833c"] ;
6 -> 10 ;
11 [label="radius_mean <= 11.82\ngini = 0.018\nsamples = 109\nvalue = [108, 1]\nclass = knn-virginica", fillcolor="#e5823b"] ;
10 -> 11 ;
12 [label="radius_worst <= 13.62\ngini = 0.087\nsamples = 22\nvalue = [21, 1]\nclass = knn-virginica", fillcolor="#e68742"] ;
11 -> 12 ;
13 [label="gini = 0.0\nsamples = 21\nvalue = [21, 0]\nclass = knn-virginica", fillcolor="#e58139"] ;
12 -> 13 ;
14 [label="gini = 0.0\nsamples = 1\nvalue = [0, 1]\nclass = knn-versicolor", fillcolor="#399de5"] ;
12 -> 14 ;
15 [label="gini = 0.0\nsamples = 87\nvalue = [87, 0]\nclass = knn-virginica", fillcolor="#e58139"] ;
11 -> 15 ;
16 [label="radius_worst <= 14.495\ngini = 0.111\nsamples = 17\nvalue = [16, 1]\nclass = knn-virginica", fillcolor="#e78945"] ;
10 -> 16 ;
17 [label="gini = 0.0\nsamples = 1\nvalue = [0, 1]\nclass = knn-versicolor", fillcolor="#399de5"] ;
16 -> 17 ;
18 [label="gini = 0.0\nsamples = 16\nvalue = [16, 0]\nclass = knn-virginica", fillcolor="#e58139"] ;
16 -> 18 ;
19 [label="radius_mean <= 13.035\ngini = 0.219\nsamples = 32\nvalue = [28, 4]\nclass = knn-virginica", fillcolor="#e99355"] ;
3 -> 19 ;
20 [label="gini = 0.0\nsamples = 2\nvalue = [0, 2]\nclass = knn-versicolor", fillcolor="#399de5"] ;
19 -> 20 ;
21 [label="radius_se <= 0.213\ngini = 0.124\nsamples = 30\nvalue = [28, 2]\nclass = knn-virginica", fillcolor="#e78a47"] ;
19 -> 21 ;
22 [label="radius_se <= 0.201\ngini = 0.444\nsamples = 6\nvalue = [4, 2]\nclass = knn-virginica", fillcolor="#f2c09c"] ;
21 -> 22 ;
23 [label="gini = 0.0\nsamples = 3\nvalue = [3, 0]\nclass = knn-virginica", fillcolor="#e58139"] ;
22 -> 23 ;
24 [label="radius_worst <= 15.315\ngini = 0.444\nsamples = 3\nvalue = [1, 2]\nclass = knn-versicolor", fillcolor="#9ccef2"] ;
22 -> 24 ;
25 [label="gini = 0.0\nsamples = 2\nvalue = [0, 2]\nclass = knn-versicolor", fillcolor="#399de5"] ;
24 -> 25 ;
26 [label="gini = 0.0\nsamples = 1\nvalue = [1, 0]\nclass = knn-virginica", fillcolor="#e58139"] ;
24 -> 26 ;
27 [label="gini = 0.0\nsamples = 24\nvalue = [24, 0]\nclass = knn-virginica", fillcolor="#e58139"] ;
21 -> 27 ;
28 [label="gini = 0.0\nsamples = 1\nvalue = [0, 1]\nclass = knn-versicolor", fillcolor="#399de5"] ;
2 -> 28 ;
29 [label="radius_mean <= 14.255\ngini = 0.448\nsamples = 56\nvalue = [37, 19]\nclass = knn-virginica", fillcolor="#f2c29f"] ;
1 -> 29 ;
30 [label="radius_mean <= 13.22\ngini = 0.476\nsamples = 23\nvalue = [9, 14]\nclass = knn-versicolor", fillcolor="#b8dcf6"] ;
29 -> 30 ;
31 [label="gini = 0.0\nsamples = 5\nvalue = [0, 5]\nclass = knn-versicolor", fillcolor="#399de5"] ;
30 -> 31 ;
32 [label="radius_worst <= 15.685\ngini = 0.5\nsamples = 18\nvalue = [9, 9]\nclass = knn-virginica", fillcolor="#ffffff"] ;
30 -> 32 ;
33 [label="radius_se <= 0.216\ngini = 0.32\nsamples = 5\nvalue = [4, 1]\nclass = knn-virginica", fillcolor="#eca06a"] ;
32 -> 33 ;
34 [label="gini = 0.0\nsamples = 1\nvalue = [0, 1]\nclass = knn-versicolor", fillcolor="#399de5"] ;
33 -> 34 ;
35 [label="gini = 0.0\nsamples = 4\nvalue = [4, 0]\nclass = knn-virginica", fillcolor="#e58139"] ;
33 -> 35 ;
36 [label="radius_se <= 0.309\ngini = 0.473\nsamples = 13\nvalue = [5, 8]\nclass = knn-versicolor", fillcolor="#b5daf5"] ;
32 -> 36 ;
37 [label="radius_se <= 0.222\ngini = 0.278\nsamples = 6\nvalue = [1, 5]\nclass = knn-versicolor", fillcolor="#61b1ea"] ;
36 -> 37 ;
38 [label="gini = 0.0\nsamples = 1\nvalue = [1, 0]\nclass = knn-virginica", fillcolor="#e58139"] ;
37 -> 38 ;
39 [label="gini = 0.0\nsamples = 5\nvalue = [0, 5]\nclass = knn-versicolor", fillcolor="#399de5"] ;
37 -> 39 ;
40 [label="radius_se <= 0.369\ngini = 0.49\nsamples = 7\nvalue = [4, 3]\nclass = knn-virginica", fillcolor="#f8e0ce"] ;
36 -> 40 ;
41 [label="gini = 0.0\nsamples = 3\nvalue = [3, 0]\nclass = knn-virginica", fillcolor="#e58139"] ;
40 -> 41 ;
42 [label="radius_mean <= 13.335\ngini = 0.375\nsamples = 4\nvalue = [1, 3]\nclass = knn-versicolor", fillcolor="#7bbeee"] ;
40 -> 42 ;
43 [label="gini = 0.0\nsamples = 1\nvalue = [1, 0]\nclass = knn-virginica", fillcolor="#e58139"] ;
42 -> 43 ;
44 [label="gini = 0.0\nsamples = 3\nvalue = [0, 3]\nclass = knn-versicolor", fillcolor="#399de5"] ;
42 -> 44 ;
45 [label="radius_mean <= 15.28\ngini = 0.257\nsamples = 33\nvalue = [28, 5]\nclass = knn-virginica", fillcolor="#ea985c"] ;
29 -> 45 ;
46 [label="radius_se <= 0.275\ngini = 0.219\nsamples = 32\nvalue = [28, 4]\nclass = knn-virginica", fillcolor="#e99355"] ;
45 -> 46 ;
47 [label="gini = 0.0\nsamples = 12\nvalue = [12, 0]\nclass = knn-virginica", fillcolor="#e58139"] ;
46 -> 47 ;
48 [label="radius_se <= 0.291\ngini = 0.32\nsamples = 20\nvalue = [16, 4]\nclass = knn-virginica", fillcolor="#eca06a"] ;
46 -> 48 ;
49 [label="radius_mean <= 14.91\ngini = 0.444\nsamples = 3\nvalue = [1, 2]\nclass = knn-versicolor", fillcolor="#9ccef2"] ;
48 -> 49 ;
50 [label="gini = 0.0\nsamples = 2\nvalue = [0, 2]\nclass = knn-versicolor", fillcolor="#399de5"] ;
49 -> 50 ;
51 [label="gini = 0.0\nsamples = 1\nvalue = [1, 0]\nclass = knn-virginica", fillcolor="#e58139"] ;
49 -> 51 ;
52 [label="radius_worst <= 16.23\ngini = 0.208\nsamples = 17\nvalue = [15, 2]\nclass = knn-virginica", fillcolor="#e89253"] ;
48 -> 52 ;
53 [label="radius_worst <= 16.16\ngini = 0.408\nsamples = 7\nvalue = [5, 2]\nclass = knn-virginica", fillcolor="#efb388"] ;
52 -> 53 ;
54 [label="radius_mean <= 14.565\ngini = 0.278\nsamples = 6\nvalue = [5, 1]\nclass = knn-virginica", fillcolor="#ea9a61"] ;
53 -> 54 ;
55 [label="gini = 0.0\nsamples = 3\nvalue = [3, 0]\nclass = knn-virginica", fillcolor="#e58139"] ;
54 -> 55 ;
56 [label="radius_worst <= 15.95\ngini = 0.444\nsamples = 3\nvalue = [2, 1]\nclass = knn-virginica", fillcolor="#f2c09c"] ;
54 -> 56 ;
57 [label="gini = 0.0\nsamples = 1\nvalue = [0, 1]\nclass = knn-versicolor", fillcolor="#399de5"] ;
56 -> 57 ;
58 [label="gini = 0.0\nsamples = 2\nvalue = [2, 0]\nclass = knn-virginica", fillcolor="#e58139"] ;
56 -> 58 ;
59 [label="gini = 0.0\nsamples = 1\nvalue = [0, 1]\nclass = knn-versicolor", fillcolor="#399de5"] ;
53 -> 59 ;
60 [label="gini = 0.0\nsamples = 10\nvalue = [10, 0]\nclass = knn-virginica", fillcolor="#e58139"] ;
52 -> 60 ;
61 [label="gini = 0.0\nsamples = 1\nvalue = [0, 1]\nclass = knn-versicolor", fillcolor="#399de5"] ;
45 -> 61 ;
62 [label="radius_se <= 0.246\ngini = 0.101\nsamples = 169\nvalue = [9, 160]\nclass = knn-versicolor", fillcolor="#44a3e6"] ;
0 -> 62 [labeldistance=2.5, labelangle=-45, headlabel="False"] ;
63 [label="radius_mean <= 15.67\ngini = 0.5\nsamples = 10\nvalue = [5, 5]\nclass = knn-virginica", fillcolor="#ffffff"] ;
62 -> 63 ;
64 [label="radius_se <= 0.243\ngini = 0.278\nsamples = 6\nvalue = [1, 5]\nclass = knn-versicolor", fillcolor="#61b1ea"] ;
63 -> 64 ;
65 [label="gini = 0.0\nsamples = 5\nvalue = [0, 5]\nclass = knn-versicolor", fillcolor="#399de5"] ;
64 -> 65 ;
66 [label="gini = 0.0\nsamples = 1\nvalue = [1, 0]\nclass = knn-virginica", fillcolor="#e58139"] ;
64 -> 66 ;
67 [label="gini = 0.0\nsamples = 4\nvalue = [4, 0]\nclass = knn-virginica", fillcolor="#e58139"] ;
63 -> 67 ;
68 [label="radius_worst <= 18.225\ngini = 0.049\nsamples = 159\nvalue = [4, 155]\nclass = knn-versicolor", fillcolor="#3ea0e6"] ;
62 -> 68 ;
69 [label="radius_worst <= 18.1\ngini = 0.219\nsamples = 24\nvalue = [3, 21]\nclass = knn-versicolor", fillcolor="#55abe9"] ;
68 -> 69 ;
70 [label="radius_se <= 0.313\ngini = 0.087\nsamples = 22\nvalue = [1, 21]\nclass = knn-versicolor", fillcolor="#42a2e6"] ;
69 -> 70 ;
71 [label="radius_mean <= 15.465\ngini = 0.375\nsamples = 4\nvalue = [1, 3]\nclass = knn-versicolor", fillcolor="#7bbeee"] ;
70 -> 71 ;
72 [label="gini = 0.0\nsamples = 3\nvalue = [0, 3]\nclass = knn-versicolor", fillcolor="#399de5"] ;
71 -> 72 ;
73 [label="gini = 0.0\nsamples = 1\nvalue = [1, 0]\nclass = knn-virginica", fillcolor="#e58139"] ;
71 -> 73 ;
74 [label="gini = 0.0\nsamples = 18\nvalue = [0, 18]\nclass = knn-versicolor", fillcolor="#399de5"] ;
70 -> 74 ;
75 [label="gini = 0.0\nsamples = 2\nvalue = [2, 0]\nclass = knn-virginica", fillcolor="#e58139"] ;
69 -> 75 ;
76 [label="radius_worst <= 19.835\ngini = 0.015\nsamples = 135\nvalue = [1, 134]\nclass = knn-versicolor", fillcolor="#3a9ee5"] ;
68 -> 76 ;
77 [label="radius_worst <= 19.81\ngini = 0.1\nsamples = 19\nvalue = [1, 18]\nclass = knn-versicolor", fillcolor="#44a2e6"] ;
76 -> 77 ;
78 [label="gini = 0.0\nsamples = 18\nvalue = [0, 18]\nclass = knn-versicolor", fillcolor="#399de5"] ;
77 -> 78 ;
79 [label="gini = 0.0\nsamples = 1\nvalue = [1, 0]\nclass = knn-virginica", fillcolor="#e58139"] ;
77 -> 79 ;
80 [label="gini = 0.0\nsamples = 116\nvalue = [0, 116]\nclass = knn-versicolor", fillcolor="#399de5"] ;
76 -> 80 ;
}